<?xml version="1.0"?>
<opencv_storage>
<cascade>
  <stageType>BOOST</stageType>
  <featureType>HAAR</featureType>
  <height>60</height>
  <width>45</width>
  <stageParams>
    <boostType>GAB</boostType>
    <minHitRate>9.9500000476837158e-01</minHitRate>
    <maxFalseAlarm>3.0000001192092896e-01</maxFalseAlarm>
    <weightTrimRate>9.4999999999999996e-01</weightTrimRate>
    <maxDepth>1</maxDepth>
    <maxWeakCount>100</maxWeakCount></stageParams>
  <featureParams>
    <maxCatCount>0</maxCatCount>
    <featSize>1</featSize>
    <mode>BASIC</mode></featureParams>
  <stageNum>40</stageNum>
  <stages>
    <!-- stage 0 -->
    <_>
      <maxWeakCount>2</maxWeakCount>
      <stageThreshold>2.6218939572572708e-02</stageThreshold>
      <weakClassifiers>
        <_>
          <internalNodes>
            0 -1 5 -7.8360037878155708e-03</internalNodes>
          <leafValues>
            -9.2857140302658081e-01 9.7647058963775635e-01</leafValues></_>
        <_>
          <internalNodes>
            0 -1 2 -1.5615746378898621e-01</internalNodes>
          <leafValues>
            -1. 9.5479035377502441e-01</leafValues></_></weakClassifiers></_>
    <!-- stage 1 -->
    <_>
      <maxWeakCount>4</maxWeakCount>
      <stageThreshold>2.0474144816398621e-01</stageThreshold>
      <weakClassifiers>
        <_>
          <internalNodes>
            0 -1 15 -1.3122489675879478e-02</internalNodes>
          <leafValues>
            9.2405062913894653e-01 -4.7058823704719543e-01</leafValues></_>
        <_>
          <internalNodes>
            0 -1 60 -8.5254043340682983e-02</internalNodes>
          <leafValues>
            -7.8296625614166260e-01 7.2215932607650757e-01</leafValues></_>
        <_>
          <internalNodes>
            0 -1 134 2.9212056688265875e-05</internalNodes>
          <leafValues>
            6.1421597003936768e-01 -7.4908381700515747e-01</leafValues></_>
        <_>
          <internalNodes>
            0 -1 90 5.1585249602794647e-03</internalNodes>
          <leafValues>
            -5.5055892467498779e-01 1.</leafValues></_></weakClassifiers></_>
    <!-- stage 2 -->
    <_>
      <maxWeakCount>4</maxWeakCount>
      <stageThreshold>3.7599402666091919e-01</stageThreshold>
      <weakClassifiers>
        <_>
          <internalNodes>
            0 -1 10 -7.3175528086721897e-03</internalNodes>
          <leafValues>
            -1. 7.8947371244430542e-01</leafValues></_>
        <_>
          <internalNodes>
            0 -1 14 -3.4116566181182861e-02</internalNodes>
          <leafValues>
            9.7711747884750366e-01 -6.1175686120986938e-01</leafValues></_>
        <_>
          <internalNodes>
            0 -1 113 5.5686668929411098e-05</internalNodes>
          <leafValues>
            7.8622037172317505e-01 -6.5399777889251709e-01</leafValues></_>
        <_>
          <internalNodes>
            0 -1 30 3.7363588489824906e-05</internalNodes>
          <leafValues>
            -5.8794319629669189e-01 8.8473498821258545e-01</leafValues></_></weakClassifiers></_>
    <!-- stage 3 -->
    <_>
      <maxWeakCount>3</maxWeakCount>
      <stageThreshold>8.8406682014465332e-01</stageThreshold>
      <weakClassifiers>
        <_>
          <internalNodes>
            0 -1 148 -3.1763925217092037e-03</internalNodes>
          <leafValues>
            -1. 7.7083331346511841e-01</leafValues></_>
        <_>
          <internalNodes>
            0 -1 33 -2.5457993149757385e-02</internalNodes>
          <leafValues>
            8.4197467565536499e-01 -6.6030520200729370e-01</leafValues></_>
        <_>
          <internalNodes>
            0 -1 111 -2.9640295906574465e-05</internalNodes>
          <leafValues>
            -7.1369534730911255e-01 7.7353864908218384e-01</leafValues></_></weakClassifiers></_>
    <!-- stage 4 -->
    <_>
      <maxWeakCount>1</maxWeakCount>
      <stageThreshold>8.2795697450637817e-01</stageThreshold>
      <weakClassifiers>
        <_>
          <internalNodes>
            0 -1 1 -4.2807169258594513e-02</internalNodes>
          <leafValues>
            -1. 8.2795697450637817e-01</leafValues></_></weakClassifiers></_>
    <!-- stage 5 -->
    <_>
      <maxWeakCount>4</maxWeakCount>
      <stageThreshold>1.2530800700187683e-01</stageThreshold>
      <weakClassifiers>
        <_>
          <internalNodes>
            0 -1 92 -2.1231226623058319e-01</internalNodes>
          <leafValues>
            -1. 7.7083331346511841e-01</leafValues></_>
        <_>
          <internalNodes>
            0 -1 34 -5.8333891502115875e-05</internalNodes>
          <leafValues>
            -7.8112161159515381e-01 8.1496733427047729e-01</leafValues></_>
        <_>
          <internalNodes>
            0 -1 9 -1.3766387104988098e-01</internalNodes>
          <leafValues>
            -5.9324878454208374e-01 1.</leafValues></_>
        <_>
          <internalNodes>
            0 -1 151 -4.5777820050716400e-03</internalNodes>
          <leafValues>
            -7.1552211046218872e-01 7.2884505987167358e-01</leafValues></_></weakClassifiers></_>
    <!-- stage 6 -->
    <_>
      <maxWeakCount>2</maxWeakCount>
      <stageThreshold>3.8461539149284363e-01</stageThreshold>
      <weakClassifiers>
        <_>
          <internalNodes>
            0 -1 20 -5.3685596212744713e-03</internalNodes>
          <leafValues>
            8.3908045291900635e-01 -6.1538463830947876e-01</leafValues></_>
        <_>
          <internalNodes>
            0 -1 67 -5.7813357561826706e-03</internalNodes>
          <leafValues>
            1. -4.3664753437042236e-01</leafValues></_></weakClassifiers></_>
    <!-- stage 7 -->
    <_>
      <maxWeakCount>3</maxWeakCount>
      <stageThreshold>5.2309525012969971e-01</stageThreshold>
      <weakClassifiers>
        <_>
          <internalNodes>
            0 -1 81 -7.9425856471061707e-02</internalNodes>
          <leafValues>
            -6.9999998807907104e-01 7.6344084739685059e-01</leafValues></_>
        <_>
          <internalNodes>
            0 -1 66 -1.5206685662269592e-01</internalNodes>
          <leafValues>
            -9.1421955823898315e-01 5.8792084455490112e-01</leafValues></_>
        <_>
          <internalNodes>
            0 -1 118 -1.1915549839613959e-04</internalNodes>
          <leafValues>
            -7.3320221900939941e-01 6.7387396097183228e-01</leafValues></_></weakClassifiers></_>
    <!-- stage 8 -->
    <_>
      <maxWeakCount>4</maxWeakCount>
      <stageThreshold>2.8920969367027283e-01</stageThreshold>
      <weakClassifiers>
        <_>
          <internalNodes>
            0 -1 35 4.7061963414307684e-05</internalNodes>
          <leafValues>
            7.6595747470855713e-01 -7.8947371244430542e-01</leafValues></_>
        <_>
          <internalNodes>
            0 -1 12 -6.5485360100865364e-03</internalNodes>
          <leafValues>
            -6.4345991611480713e-01 8.0140006542205811e-01</leafValues></_>
        <_>
          <internalNodes>
            0 -1 59 -2.8473086655139923e-02</internalNodes>
          <leafValues>
            1. -4.6816280484199524e-01</leafValues></_>
        <_>
          <internalNodes>
            0 -1 138 -4.7505025577265769e-05</internalNodes>
          <leafValues>
            -7.3716211318969727e-01 7.2214329242706299e-01</leafValues></_></weakClassifiers></_>
    <!-- stage 9 -->
    <_>
      <maxWeakCount>4</maxWeakCount>
      <stageThreshold>3.6653751134872437e-01</stageThreshold>
      <weakClassifiers>
        <_>
          <internalNodes>
            0 -1 45 6.5169408917427063e-02</internalNodes>
          <leafValues>
            7.5257730484008789e-01 -1.</leafValues></_>
        <_>
          <internalNodes>
            0 -1 123 -3.4834473626688123e-04</internalNodes>
          <leafValues>
            -8.7905693054199219e-01 6.0877293348312378e-01</leafValues></_>
        <_>
          <internalNodes>
            0 -1 63 1.7086972948163748e-03</internalNodes>
          <leafValues>
            -5.0698286294937134e-01 9.1943383216857910e-01</leafValues></_>
        <_>
          <internalNodes>
            0 -1 69 1.5820148400962353e-03</internalNodes>
          <leafValues>
            -4.1306614875793457e-01 1.</leafValues></_></weakClassifiers></_>
    <!-- stage 10 -->
    <_>
      <maxWeakCount>2</maxWeakCount>
      <stageThreshold>2.0889681577682495e-01</stageThreshold>
      <weakClassifiers>
        <_>
          <internalNodes>
            0 -1 97 -7.0358306169509888e-02</internalNodes>
          <leafValues>
            -7.5999999046325684e-01 8.6363637447357178e-01</leafValues></_>
        <_>
          <internalNodes>
            0 -1 95 -8.6948333773761988e-04</internalNodes>
          <leafValues>
            9.6889680624008179e-01 -3.5748618841171265e-01</leafValues></_></weakClassifiers></_>
    <!-- stage 11 -->
    <_>
      <maxWeakCount>3</maxWeakCount>
      <stageThreshold>7.3910522460937500e-01</stageThreshold>
      <weakClassifiers>
        <_>
          <internalNodes>
            0 -1 24 1.1110299266874790e-02</internalNodes>
          <leafValues>
            6.9999998807907104e-01 -1.</leafValues></_>
        <_>
          <internalNodes>
            0 -1 13 -3.1270454637706280e-03</internalNodes>
          <leafValues>
            -9.6089476346969604e-01 6.1051279306411743e-01</leafValues></_>
        <_>
          <internalNodes>
            0 -1 37 -1.4777816249988973e-04</internalNodes>
          <leafValues>
            1. -5.2648252248764038e-01</leafValues></_></weakClassifiers></_>
    <!-- stage 12 -->
    <_>
      <maxWeakCount>6</maxWeakCount>
      <stageThreshold>3.6462047696113586e-01</stageThreshold>
      <weakClassifiers>
        <_>
          <internalNodes>
            0 -1 86 -1.1306297034025192e-01</internalNodes>
          <leafValues>
            7.3913043737411499e-01 -5.2380955219268799e-01</leafValues></_>
        <_>
          <internalNodes>
            0 -1 72 -1.5069573419168591e-04</internalNodes>
          <leafValues>
            -7.0748329162597656e-01 6.3295090198516846e-01</leafValues></_>
        <_>
          <internalNodes>
            0 -1 61 7.6377276855055243e-05</internalNodes>
          <leafValues>
            -5.1329123973846436e-01 8.4091788530349731e-01</leafValues></_>
        <_>
          <internalNodes>
            0 -1 150 -1.5150854596868157e-04</internalNodes>
          <leafValues>
            -8.5131114721298218e-01 5.4670727252960205e-01</leafValues></_>
        <_>
          <internalNodes>
            0 -1 32 -7.7418535511242226e-06</internalNodes>
          <leafValues>
            -5.5059236288070679e-01 8.9560800790786743e-01</leafValues></_>
        <_>
          <internalNodes>
            0 -1 28 3.7155725294724107e-04</internalNodes>
          <leafValues>
            -4.9028450250625610e-01 9.5898759365081787e-01</leafValues></_></weakClassifiers></_>
    <!-- stage 13 -->
    <_>
      <maxWeakCount>4</maxWeakCount>
      <stageThreshold>4.0991646051406860e-01</stageThreshold>
      <weakClassifiers>
        <_>
          <internalNodes>
            0 -1 146 1.8553710106061772e-05</internalNodes>
          <leafValues>
            8.2926827669143677e-01 -3.5483869910240173e-01</leafValues></_>
        <_>
          <internalNodes>
            0 -1 8 7.5353290885686874e-03</internalNodes>
          <leafValues>
            -5.4353994131088257e-01 8.0582845211029053e-01</leafValues></_>
        <_>
          <internalNodes>
            0 -1 41 -1.7798449844121933e-02</internalNodes>
          <leafValues>
            6.4663952589035034e-01 -6.9356673955917358e-01</leafValues></_>
        <_>
          <internalNodes>
            0 -1 143 -7.2691065724939108e-05</internalNodes>
          <leafValues>
            8.5505306720733643e-01 -5.2245140075683594e-01</leafValues></_></weakClassifiers></_>
    <!-- stage 14 -->
    <_>
      <maxWeakCount>5</maxWeakCount>
      <stageThreshold>1.2522931396961212e-01</stageThreshold>
      <weakClassifiers>
        <_>
          <internalNodes>
            0 -1 55 -1.7692718654870987e-02</internalNodes>
          <leafValues>
            8.7179487943649292e-01 -3.1428572535514832e-01</leafValues></_>
        <_>
          <internalNodes>
            0 -1 108 -6.5467371605336666e-03</internalNodes>
          <leafValues>
            8.2266175746917725e-01 -4.5384314656257629e-01</leafValues></_>
        <_>
          <internalNodes>
            0 -1 125 7.5554999057203531e-05</internalNodes>
          <leafValues>
            7.2643214464187622e-01 -6.0231739282608032e-01</leafValues></_>
        <_>
          <internalNodes>
            0 -1 88 -5.3308677161112428e-04</internalNodes>
          <leafValues>
            8.0894619226455688e-01 -4.5492744445800781e-01</leafValues></_>
        <_>
          <internalNodes>
            0 -1 109 1.0448021348565817e-03</internalNodes>
          <leafValues>
            -4.9935120344161987e-01 9.7142457962036133e-01</leafValues></_></weakClassifiers></_>
    <!-- stage 15 -->
    <_>
      <maxWeakCount>4</maxWeakCount>
      <stageThreshold>3.6983224749565125e-01</stageThreshold>
      <weakClassifiers>
        <_>
          <internalNodes>
            0 -1 7 -4.2427893728017807e-02</internalNodes>
          <leafValues>
            6.8316829204559326e-01 -1.</leafValues></_>
        <_>
          <internalNodes>
            0 -1 102 -1.9124473910778761e-03</internalNodes>
          <leafValues>
            1. -4.2275235056877136e-01</leafValues></_>
        <_>
          <internalNodes>
            0 -1 0 7.7715278603136539e-03</internalNodes>
          <leafValues>
            -5.0327384471893311e-01 7.8803569078445435e-01</leafValues></_>
        <_>
          <internalNodes>
            0 -1 110 1.0640532309480477e-05</internalNodes>
          <leafValues>
            6.7503285408020020e-01 -6.7861938476562500e-01</leafValues></_></weakClassifiers></_>
    <!-- stage 16 -->
    <_>
      <maxWeakCount>4</maxWeakCount>
      <stageThreshold>2.7753454446792603e-01</stageThreshold>
      <weakClassifiers>
        <_>
          <internalNodes>
            0 -1 121 4.7122471034526825e-02</internalNodes>
          <leafValues>
            7.1717172861099243e-01 -1.</leafValues></_>
        <_>
          <internalNodes>
            0 -1 101 -1.2065289542078972e-02</internalNodes>
          <leafValues>
            8.9040738344192505e-01 -5.3237861394882202e-01</leafValues></_>
        <_>
          <internalNodes>
            0 -1 36 -1.2930138036608696e-03</internalNodes>
          <leafValues>
            -7.3211723566055298e-01 5.6669747829437256e-01</leafValues></_>
        <_>
          <internalNodes>
            0 -1 84 -4.3345902668079361e-05</internalNodes>
          <leafValues>
            9.4425237178802490e-01 -4.7395607829093933e-01</leafValues></_></weakClassifiers></_>
    <!-- stage 17 -->
    <_>
      <maxWeakCount>3</maxWeakCount>
      <stageThreshold>8.7036210298538208e-01</stageThreshold>
      <weakClassifiers>
        <_>
          <internalNodes>
            0 -1 22 -4.0514923632144928e-02</internalNodes>
          <leafValues>
            7.7083331346511841e-01 -1.</leafValues></_>
        <_>
          <internalNodes>
            0 -1 104 1.6163437976501882e-04</internalNodes>
          <leafValues>
            7.4644511938095093e-01 -7.1374261379241943e-01</leafValues></_>
        <_>
          <internalNodes>
            0 -1 140 3.0335315386764705e-05</internalNodes>
          <leafValues>
            8.1327140331268311e-01 -6.1369335651397705e-01</leafValues></_></weakClassifiers></_>
    <!-- stage 18 -->
    <_>
      <maxWeakCount>4</maxWeakCount>
      <stageThreshold>-4.5797787606716156e-02</stageThreshold>
      <weakClassifiers>
        <_>
          <internalNodes>
            0 -1 76 -9.5732779300305992e-05</internalNodes>
          <leafValues>
            -8.8235294818878174e-01 7.5000000000000000e-01</leafValues></_>
        <_>
          <internalNodes>
            0 -1 27 2.6044555124826729e-04</internalNodes>
          <leafValues>
            6.7953807115554810e-01 -6.8102669715881348e-01</leafValues></_>
        <_>
          <internalNodes>
            0 -1 137 3.2863146770978346e-05</internalNodes>
          <leafValues>
            6.5728747844696045e-01 -7.8253549337387085e-01</leafValues></_>
        <_>
          <internalNodes>
            0 -1 119 -3.4813456295523793e-05</internalNodes>
          <leafValues>
            -6.9280034303665161e-01 7.6491546630859375e-01</leafValues></_></weakClassifiers></_>
    <!-- stage 19 -->
    <_>
      <maxWeakCount>4</maxWeakCount>
      <stageThreshold>2.9488170146942139e-01</stageThreshold>
      <weakClassifiers>
        <_>
          <internalNodes>
            0 -1 120 -5.3955323528498411e-04</internalNodes>
          <leafValues>
            6.9999998807907104e-01 -1.</leafValues></_>
        <_>
          <internalNodes>
            0 -1 77 -6.3406869769096375e-02</internalNodes>
          <leafValues>
            8.0042791366577148e-01 -6.1389636993408203e-01</leafValues></_>
        <_>
          <internalNodes>
            0 -1 3 7.5281853787600994e-04</internalNodes>
          <leafValues>
            7.1779412031173706e-01 -6.2978863716125488e-01</leafValues></_>
        <_>
          <internalNodes>
            0 -1 46 2.0195735851302743e-04</internalNodes>
          <leafValues>
            -5.0901603698730469e-01 8.6632460355758667e-01</leafValues></_></weakClassifiers></_>
    <!-- stage 20 -->
    <_>
      <maxWeakCount>4</maxWeakCount>
      <stageThreshold>1.0119204223155975e-01</stageThreshold>
      <weakClassifiers>
        <_>
          <internalNodes>
            0 -1 105 3.5258060961496085e-05</internalNodes>
          <leafValues>
            8.0000001192092896e-01 -6.5217393636703491e-01</leafValues></_>
        <_>
          <internalNodes>
            0 -1 79 8.2774044130928814e-05</internalNodes>
          <leafValues>
            7.0306682586669922e-01 -8.1940931081771851e-01</leafValues></_>
        <_>
          <internalNodes>
            0 -1 99 -1.2413130141794682e-02</internalNodes>
          <leafValues>
            8.9929145574569702e-01 -5.2898234128952026e-01</leafValues></_>
        <_>
          <internalNodes>
            0 -1 42 1.7580740677658468e-04</internalNodes>
          <leafValues>
            6.4958375692367554e-01 -8.6342185735702515e-01</leafValues></_></weakClassifiers></_>
    <!-- stage 21 -->
    <_>
      <maxWeakCount>4</maxWeakCount>
      <stageThreshold>4.6490135788917542e-01</stageThreshold>
      <weakClassifiers>
        <_>
          <internalNodes>
            0 -1 98 3.2441534101963043e-02</internalNodes>
          <leafValues>
            6.6666668653488159e-01 -1.</leafValues></_>
        <_>
          <internalNodes>
            0 -1 103 -8.1027240958064795e-04</internalNodes>
          <leafValues>
            1. -4.7423976659774780e-01</leafValues></_>
        <_>
          <internalNodes>
            0 -1 100 4.9860210856422782e-04</internalNodes>
          <leafValues>
            -4.3943715095520020e-01 8.6643022298812866e-01</leafValues></_>
        <_>
          <internalNodes>
            0 -1 132 -2.3947999579831958e-04</internalNodes>
          <leafValues>
            7.6742857694625854e-01 -5.9395575523376465e-01</leafValues></_></weakClassifiers></_>
    <!-- stage 22 -->
    <_>
      <maxWeakCount>3</maxWeakCount>
      <stageThreshold>-2.8955715894699097e-01</stageThreshold>
      <weakClassifiers>
        <_>
          <internalNodes>
            0 -1 127 -5.7352208386873826e-05</internalNodes>
          <leafValues>
            -5.4545456171035767e-01 7.5824177265167236e-01</leafValues></_>
        <_>
          <internalNodes>
            0 -1 19 -1.5884604305028915e-02</internalNodes>
          <leafValues>
            9.3210899829864502e-01 -4.2073807120323181e-01</leafValues></_>
        <_>
          <internalNodes>
            0 -1 135 -1.3410302926786244e-05</internalNodes>
          <leafValues>
            -6.7621159553527832e-01 6.5159177780151367e-01</leafValues></_></weakClassifiers></_>
    <!-- stage 23 -->
    <_>
      <maxWeakCount>5</maxWeakCount>
      <stageThreshold>1.8638770282268524e-01</stageThreshold>
      <weakClassifiers>
        <_>
          <internalNodes>
            0 -1 80 -3.7311525375116616e-05</internalNodes>
          <leafValues>
            -3.3333334326744080e-01 7.6744186878204346e-01</leafValues></_>
        <_>
          <internalNodes>
            0 -1 56 -1.9909866154193878e-02</internalNodes>
          <leafValues>
            -4.8452746868133545e-01 7.6454830169677734e-01</leafValues></_>
        <_>
          <internalNodes>
            0 -1 112 1.3197364751249552e-03</internalNodes>
          <leafValues>
            -3.5332006216049194e-01 1.</leafValues></_>
        <_>
          <internalNodes>
            0 -1 39 -5.1451654871925712e-04</internalNodes>
          <leafValues>
            9.6279847621917725e-01 -4.0886652469635010e-01</leafValues></_>
        <_>
          <internalNodes>
            0 -1 40 -1.8378217646386474e-05</internalNodes>
          <leafValues>
            -6.8766015768051147e-01 7.0704334974288940e-01</leafValues></_></weakClassifiers></_>
    <!-- stage 24 -->
    <_>
      <maxWeakCount>4</maxWeakCount>
      <stageThreshold>1.5751062333583832e-01</stageThreshold>
      <weakClassifiers>
        <_>
          <internalNodes>
            0 -1 70 6.2126712873578072e-04</internalNodes>
          <leafValues>
            6.9696968793869019e-01 -8.5714286565780640e-01</leafValues></_>
        <_>
          <internalNodes>
            0 -1 54 -2.8915839720866643e-05</internalNodes>
          <leafValues>
            -4.5515054464340210e-01 7.9385542869567871e-01</leafValues></_>
        <_>
          <internalNodes>
            0 -1 52 -5.7227676734328270e-03</internalNodes>
          <leafValues>
            8.7691187858581543e-01 -4.6217861771583557e-01</leafValues></_>
        <_>
          <internalNodes>
            0 -1 23 7.8600405686302111e-06</internalNodes>
          <leafValues>
            6.9467580318450928e-01 -6.5611386299133301e-01</leafValues></_></weakClassifiers></_>
    <!-- stage 25 -->
    <_>
      <maxWeakCount>3</maxWeakCount>
      <stageThreshold>3.0734181404113770e-01</stageThreshold>
      <weakClassifiers>
        <_>
          <internalNodes>
            0 -1 73 -3.3786678686738014e-03</internalNodes>
          <leafValues>
            -4.1666667908430099e-02 9.0769231319427490e-01</leafValues></_>
        <_>
          <internalNodes>
            0 -1 94 -2.5789518986130133e-05</internalNodes>
          <leafValues>
            8.8416802883148193e-01 -2.4763798713684082e-01</leafValues></_>
        <_>
          <internalNodes>
            0 -1 48 -3.9484456647187471e-04</internalNodes>
          <leafValues>
            9.3638628721237183e-01 -3.5271251201629639e-01</leafValues></_></weakClassifiers></_>
    <!-- stage 26 -->
    <_>
      <maxWeakCount>4</maxWeakCount>
      <stageThreshold>2.6339441537857056e-01</stageThreshold>
      <weakClassifiers>
        <_>
          <internalNodes>
            0 -1 62 -1.1852539610117674e-03</internalNodes>
          <leafValues>
            -6.6666668653488159e-01 7.2631579637527466e-01</leafValues></_>
        <_>
          <internalNodes>
            0 -1 147 -1.2710610404610634e-02</internalNodes>
          <leafValues>
            -4.7781395912170410e-01 8.3486169576644897e-01</leafValues></_>
        <_>
          <internalNodes>
            0 -1 114 8.8981178123503923e-04</internalNodes>
          <leafValues>
            -4.9731040000915527e-01 8.5561186075210571e-01</leafValues></_>
        <_>
          <internalNodes>
            0 -1 82 -5.9630617033690214e-04</internalNodes>
          <leafValues>
            -8.4071928262710571e-01 5.4720145463943481e-01</leafValues></_></weakClassifiers></_>
    <!-- stage 27 -->
    <_>
      <maxWeakCount>5</maxWeakCount>
      <stageThreshold>4.7072088718414307e-01</stageThreshold>
      <weakClassifiers>
        <_>
          <internalNodes>
            0 -1 96 6.0797587502747774e-04</internalNodes>
          <leafValues>
            6.6666668653488159e-01 -1.</leafValues></_>
        <_>
          <internalNodes>
            0 -1 71 -1.1021605459973216e-03</internalNodes>
          <leafValues>
            1. -3.5073336958885193e-01</leafValues></_>
        <_>
          <internalNodes>
            0 -1 124 5.5815689265727997e-03</internalNodes>
          <leafValues>
            -3.6199289560317993e-01 9.7348064184188843e-01</leafValues></_>
        <_>
          <internalNodes>
            0 -1 31 1.2755586067214608e-03</internalNodes>
          <leafValues>
            -3.1815317273139954e-01 1.</leafValues></_>
        <_>
          <internalNodes>
            0 -1 136 -8.4553880151361227e-04</internalNodes>
          <leafValues>
            8.3493363857269287e-01 -4.3962097167968750e-01</leafValues></_></weakClassifiers></_>
    <!-- stage 28 -->
    <_>
      <maxWeakCount>4</maxWeakCount>
      <stageThreshold>1.2753339111804962e-01</stageThreshold>
      <weakClassifiers>
        <_>
          <internalNodes>
            0 -1 43 2.5659251958131790e-02</internalNodes>
          <leafValues>
            7.7528089284896851e-01 -5.0000000000000000e-01</leafValues></_>
        <_>
          <internalNodes>
            0 -1 130 1.8980023014592007e-05</internalNodes>
          <leafValues>
            6.8417489528656006e-01 -4.8741111159324646e-01</leafValues></_>
        <_>
          <internalNodes>
            0 -1 25 2.0289512351155281e-02</internalNodes>
          <leafValues>
            4.7900947928428650e-01 -8.8085967302322388e-01</leafValues></_>
        <_>
          <internalNodes>
            0 -1 126 -1.5653171431040391e-05</internalNodes>
          <leafValues>
            -6.3934588432312012e-01 6.3639140129089355e-01</leafValues></_></weakClassifiers></_>
    <!-- stage 29 -->
    <_>
      <maxWeakCount>5</maxWeakCount>
      <stageThreshold>6.8089932203292847e-01</stageThreshold>
      <weakClassifiers>
        <_>
          <internalNodes>
            0 -1 26 -4.5577652053907514e-04</internalNodes>
          <leafValues>
            -8.4615385532379150e-01 6.8000000715255737e-01</leafValues></_>
        <_>
          <internalNodes>
            0 -1 51 -1.1549357441253960e-04</internalNodes>
          <leafValues>
            9.3873393535614014e-01 -3.3842590451240540e-01</leafValues></_>
        <_>
          <internalNodes>
            0 -1 75 -6.8080487835686654e-05</internalNodes>
          <leafValues>
            -7.1758073568344116e-01 5.4811501502990723e-01</leafValues></_>
        <_>
          <internalNodes>
            0 -1 49 -1.9827289506793022e-02</internalNodes>
          <leafValues>
            7.3889029026031494e-01 -6.2364441156387329e-01</leafValues></_>
        <_>
          <internalNodes>
            0 -1 6 3.7310496736608911e-06</internalNodes>
          <leafValues>
            6.6384863853454590e-01 -7.2761023044586182e-01</leafValues></_></weakClassifiers></_>
    <!-- stage 30 -->
    <_>
      <maxWeakCount>3</maxWeakCount>
      <stageThreshold>8.2070285081863403e-01</stageThreshold>
      <weakClassifiers>
        <_>
          <internalNodes>
            0 -1 38 2.2423997521400452e-02</internalNodes>
          <leafValues>
            6.8316829204559326e-01 -1.</leafValues></_>
        <_>
          <internalNodes>
            0 -1 29 -7.4622177635319531e-05</internalNodes>
          <leafValues>
            -5.1914483308792114e-01 7.7373474836349487e-01</leafValues></_>
        <_>
          <internalNodes>
            0 -1 145 2.7755093469750136e-05</internalNodes>
          <leafValues>
            7.0294159650802612e-01 -6.3620018959045410e-01</leafValues></_></weakClassifiers></_>
    <!-- stage 31 -->
    <_>
      <maxWeakCount>4</maxWeakCount>
      <stageThreshold>3.5736215114593506e-01</stageThreshold>
      <weakClassifiers>
        <_>
          <internalNodes>
            0 -1 87 -7.7183572575449944e-03</internalNodes>
          <leafValues>
            -8.6666667461395264e-01 7.1428573131561279e-01</leafValues></_>
        <_>
          <internalNodes>
            0 -1 64 8.5692488937638700e-05</internalNodes>
          <leafValues>
            7.4291461706161499e-01 -6.1851567029953003e-01</leafValues></_>
        <_>
          <internalNodes>
            0 -1 117 -1.8849081243388355e-04</internalNodes>
          <leafValues>
            8.5569745302200317e-01 -5.2574932575225830e-01</leafValues></_>
        <_>
          <internalNodes>
            0 -1 57 -6.5856191213242710e-05</internalNodes>
          <leafValues>
            7.8734141588211060e-01 -5.4137909412384033e-01</leafValues></_></weakClassifiers></_>
    <!-- stage 32 -->
    <_>
      <maxWeakCount>5</maxWeakCount>
      <stageThreshold>4.4503706693649292e-01</stageThreshold>
      <weakClassifiers>
        <_>
          <internalNodes>
            0 -1 83 -1.3869288563728333e-01</internalNodes>
          <leafValues>
            -1.9047619402408600e-01 9.1549295186996460e-01</leafValues></_>
        <_>
          <internalNodes>
            0 -1 116 -8.1645557656884193e-05</internalNodes>
          <leafValues>
            8.6753928661346436e-01 -3.3372384309768677e-01</leafValues></_>
        <_>
          <internalNodes>
            0 -1 85 -2.6984889060258865e-02</internalNodes>
          <leafValues>
            7.0406746864318848e-01 -5.7234048843383789e-01</leafValues></_>
        <_>
          <internalNodes>
            0 -1 89 1.0364502668380737e-03</internalNodes>
          <leafValues>
            -3.9883816242218018e-01 9.5404481887817383e-01</leafValues></_>
        <_>
          <internalNodes>
            0 -1 50 -3.8831757847219706e-03</internalNodes>
          <leafValues>
            9.5965880155563354e-01 -3.6681655049324036e-01</leafValues></_></weakClassifiers></_>
    <!-- stage 33 -->
    <_>
      <maxWeakCount>5</maxWeakCount>
      <stageThreshold>2.7195075154304504e-01</stageThreshold>
      <weakClassifiers>
        <_>
          <internalNodes>
            0 -1 133 1.7728576494846493e-05</internalNodes>
          <leafValues>
            7.1739131212234497e-01 -4.2857143282890320e-01</leafValues></_>
        <_>
          <internalNodes>
            0 -1 122 9.3854940496385098e-04</internalNodes>
          <leafValues>
            -3.7104871869087219e-01 9.2094749212265015e-01</leafValues></_>
        <_>
          <internalNodes>
            0 -1 139 7.1519491029903293e-05</internalNodes>
          <leafValues>
            8.9582645893096924e-01 -3.9263185858726501e-01</leafValues></_>
        <_>
          <internalNodes>
            0 -1 107 -8.0446407082490623e-06</internalNodes>
          <leafValues>
            9.3196910619735718e-01 -4.7270521521568298e-01</leafValues></_>
        <_>
          <internalNodes>
            0 -1 17 -6.1025202739983797e-05</internalNodes>
          <leafValues>
            8.4120613336563110e-01 -4.9751314520835876e-01</leafValues></_></weakClassifiers></_>
    <!-- stage 34 -->
    <_>
      <maxWeakCount>4</maxWeakCount>
      <stageThreshold>3.4272435307502747e-01</stageThreshold>
      <weakClassifiers>
        <_>
          <internalNodes>
            0 -1 4 -3.8623780012130737e-02</internalNodes>
          <leafValues>
            -5.5555558204650879e-01 7.0526313781738281e-01</leafValues></_>
        <_>
          <internalNodes>
            0 -1 68 -2.5283437967300415e-01</internalNodes>
          <leafValues>
            -7.2829180955886841e-01 5.8588069677352905e-01</leafValues></_>
        <_>
          <internalNodes>
            0 -1 115 -2.9001696384511888e-04</internalNodes>
          <leafValues>
            9.2069905996322632e-01 -4.4770997762680054e-01</leafValues></_>
        <_>
          <internalNodes>
            0 -1 128 6.9968402385711670e-05</internalNodes>
          <leafValues>
            -4.9131691455841064e-01 8.1346297264099121e-01</leafValues></_></weakClassifiers></_>
    <!-- stage 35 -->
    <_>
      <maxWeakCount>4</maxWeakCount>
      <stageThreshold>5.1582640409469604e-01</stageThreshold>
      <weakClassifiers>
        <_>
          <internalNodes>
            0 -1 129 -5.4897958762012422e-05</internalNodes>
          <leafValues>
            -4.2857143282890320e-01 7.1739131212234497e-01</leafValues></_>
        <_>
          <internalNodes>
            0 -1 142 -1.6170717775821686e-02</internalNodes>
          <leafValues>
            -5.9729617834091187e-01 6.2940371036529541e-01</leafValues></_>
        <_>
          <internalNodes>
            0 -1 106 3.8889242568984628e-04</internalNodes>
          <leafValues>
            -4.3590241670608521e-01 9.0650284290313721e-01</leafValues></_>
        <_>
          <internalNodes>
            0 -1 47 3.5079501685686409e-04</internalNodes>
          <leafValues>
            -3.9506617188453674e-01 1.</leafValues></_></weakClassifiers></_>
    <!-- stage 36 -->
    <_>
      <maxWeakCount>4</maxWeakCount>
      <stageThreshold>3.2917839288711548e-01</stageThreshold>
      <weakClassifiers>
        <_>
          <internalNodes>
            0 -1 144 2.0207259804010391e-03</internalNodes>
          <leafValues>
            6.8000000715255737e-01 -8.4615385532379150e-01</leafValues></_>
        <_>
          <internalNodes>
            0 -1 74 -6.2250979244709015e-03</internalNodes>
          <leafValues>
            8.5913693904876709e-01 -4.4538643956184387e-01</leafValues></_>
        <_>
          <internalNodes>
            0 -1 78 -1.0699861450120807e-03</internalNodes>
          <leafValues>
            -6.1430054903030396e-01 6.8106198310852051e-01</leafValues></_>
        <_>
          <internalNodes>
            0 -1 93 -1.0451162233948708e-02</internalNodes>
          <leafValues>
            -5.8649712800979614e-01 7.3751324415206909e-01</leafValues></_></weakClassifiers></_>
    <!-- stage 37 -->
    <_>
      <maxWeakCount>4</maxWeakCount>
      <stageThreshold>5.2758133411407471e-01</stageThreshold>
      <weakClassifiers>
        <_>
          <internalNodes>
            0 -1 21 -6.4552202820777893e-03</internalNodes>
          <leafValues>
            6.6666668653488159e-01 -1.</leafValues></_>
        <_>
          <internalNodes>
            0 -1 65 -3.7888146936893463e-02</internalNodes>
          <leafValues>
            -4.0978676080703735e-01 1.</leafValues></_>
        <_>
          <internalNodes>
            0 -1 44 -7.6541537418961525e-03</internalNodes>
          <leafValues>
            9.7541904449462891e-01 -4.1735887527465820e-01</leafValues></_>
        <_>
          <internalNodes>
            0 -1 18 -1.6701938875485212e-05</internalNodes>
          <leafValues>
            -6.4087551832199097e-01 6.8806034326553345e-01</leafValues></_></weakClassifiers></_>
    <!-- stage 38 -->
    <_>
      <maxWeakCount>4</maxWeakCount>
      <stageThreshold>7.1531400084495544e-02</stageThreshold>
      <weakClassifiers>
        <_>
          <internalNodes>
            0 -1 11 -2.0725699141621590e-03</internalNodes>
          <leafValues>
            -6.9999998807907104e-01 7.6344084739685059e-01</leafValues></_>
        <_>
          <internalNodes>
            0 -1 91 6.0846926644444466e-03</internalNodes>
          <leafValues>
            5.3169500827789307e-01 -9.5125144720077515e-01</leafValues></_>
        <_>
          <internalNodes>
            0 -1 16 1.6455729200970381e-04</internalNodes>
          <leafValues>
            -5.5105519294738770e-01 8.3735644817352295e-01</leafValues></_>
        <_>
          <internalNodes>
            0 -1 58 7.3780406637524720e-06</internalNodes>
          <leafValues>
            -5.7801443338394165e-01 7.9832869768142700e-01</leafValues></_></weakClassifiers></_>
    <!-- stage 39 -->
    <_>
      <maxWeakCount>4</maxWeakCount>
      <stageThreshold>3.5812228918075562e-01</stageThreshold>
      <weakClassifiers>
        <_>
          <internalNodes>
            0 -1 149 2.8262112755328417e-04</internalNodes>
          <leafValues>
            6.6666668653488159e-01 -1.</leafValues></_>
        <_>
          <internalNodes>
            0 -1 141 -1.3375100024859421e-05</internalNodes>
          <leafValues>
            -5.3995007276535034e-01 7.9924321174621582e-01</leafValues></_>
        <_>
          <internalNodes>
            0 -1 53 3.6105677281739190e-05</internalNodes>
          <leafValues>
            -5.8423626422882080e-01 7.8799790143966675e-01</leafValues></_>
        <_>
          <internalNodes>
            0 -1 131 -9.1405991042847745e-06</internalNodes>
          <leafValues>
            -5.2355134487152100e-01 8.6601454019546509e-01</leafValues></_></weakClassifiers></_></stages>
  <features>
    <_>
      <rects>
        <_>
          0 0 10 25 -1.</_>
        <_>
          5 0 5 25 2.</_></rects>
      <tilted>0</tilted></_>
    <_>
      <rects>
        <_>
          0 0 32 22 -1.</_>
        <_>
          16 0 16 22 2.</_></rects>
      <tilted>0</tilted></_>
    <_>
      <rects>
        <_>
          0 1 9 40 -1.</_>
        <_>
          3 1 3 40 2.</_></rects>
      <tilted>0</tilted></_>
    <_>
      <rects>
        <_>
          0 4 1 16 -1.</_>
        <_>
          0 12 1 8 2.</_></rects>
      <tilted>0</tilted></_>
    <_>
      <rects>
        <_>
          0 4 40 14 -1.</_>
        <_>
          20 4 20 14 2.</_></rects>
      <tilted>0</tilted></_>
    <_>
      <rects>
        <_>
          0 10 1 21 -1.</_>
        <_>
          0 17 1 7 2.</_></rects>
      <tilted>0</tilted></_>
    <_>
      <rects>
        <_>
          0 14 1 8 -1.</_>
        <_>
          0 18 1 4 2.</_></rects>
      <tilted>0</tilted></_>
    <_>
      <rects>
        <_>
          0 17 28 9 -1.</_>
        <_>
          0 20 28 3 2.</_></rects>
      <tilted>0</tilted></_>
    <_>
      <rects>
        <_>
          0 21 18 8 -1.</_>
        <_>
          9 21 9 8 2.</_></rects>
      <tilted>0</tilted></_>
    <_>
      <rects>
        <_>
          0 23 45 13 -1.</_>
        <_>
          15 23 15 13 2.</_></rects>
      <tilted>0</tilted></_>
    <_>
      <rects>
        <_>
          0 25 1 21 -1.</_>
        <_>
          0 32 1 7 2.</_></rects>
      <tilted>0</tilted></_>
    <_>
      <rects>
        <_>
          0 28 1 6 -1.</_>
        <_>
          0 30 1 2 2.</_></rects>
      <tilted>0</tilted></_>
    <_>
      <rects>
        <_>
          0 31 2 12 -1.</_>
        <_>
          0 35 2 4 2.</_></rects>
      <tilted>0</tilted></_>
    <_>
      <rects>
        <_>
          0 39 1 9 -1.</_>
        <_>
          0 42 1 3 2.</_></rects>
      <tilted>0</tilted></_>
    <_>
      <rects>
        <_>
          0 45 39 14 -1.</_>
        <_>
          0 52 39 7 2.</_></rects>
      <tilted>0</tilted></_>
    <_>
      <rects>
        <_>
          0 47 40 10 -1.</_>
        <_>
          0 52 40 5 2.</_></rects>
      <tilted>0</tilted></_>
    <_>
      <rects>
        <_>
          0 56 32 1 -1.</_>
        <_>
          16 56 16 1 2.</_></rects>
      <tilted>0</tilted></_>
    <_>
      <rects>
        <_>
          1 7 7 6 -1.</_>
        <_>
          1 10 7 3 2.</_></rects>
      <tilted>0</tilted></_>
    <_>
      <rects>
        <_>
          1 16 2 4 -1.</_>
        <_>
          1 16 1 2 2.</_>
        <_>
          2 18 1 2 2.</_></rects>
      <tilted>0</tilted></_>
    <_>
      <rects>
        <_>
          1 20 18 40 -1.</_>
        <_>
          1 20 9 20 2.</_>
        <_>
          10 40 9 20 2.</_></rects>
      <tilted>0</tilted></_>
    <_>
      <rects>
        <_>
          1 38 20 22 -1.</_>
        <_>
          1 49 20 11 2.</_></rects>
      <tilted>0</tilted></_>
    <_>
      <rects>
        <_>
          1 40 39 2 -1.</_>
        <_>
          14 40 13 2 2.</_></rects>
      <tilted>0</tilted></_>
    <_>
      <rects>
        <_>
          1 43 41 12 -1.</_>
        <_>
          1 47 41 4 2.</_></rects>
      <tilted>0</tilted></_>
    <_>
      <rects>
        <_>
          1 54 2 2 -1.</_>
        <_>
          1 54 1 1 2.</_>
        <_>
          2 55 1 1 2.</_></rects>
      <tilted>0</tilted></_>
    <_>
      <rects>
        <_>
          2 0 26 3 -1.</_>
        <_>
          15 0 13 3 2.</_></rects>
      <tilted>0</tilted></_>
    <_>
      <rects>
        <_>
          2 14 17 12 -1.</_>
        <_>
          2 20 17 6 2.</_></rects>
      <tilted>0</tilted></_>
    <_>
      <rects>
        <_>
          2 49 2 4 -1.</_>
        <_>
          2 51 2 2 2.</_></rects>
      <tilted>0</tilted></_>
    <_>
      <rects>
        <_>
          2 55 17 4 -1.</_>
        <_>
          2 57 17 2 2.</_></rects>
      <tilted>0</tilted></_>
    <_>
      <rects>
        <_>
          3 34 6 14 -1.</_>
        <_>
          3 34 3 7 2.</_>
        <_>
          6 41 3 7 2.</_></rects>
      <tilted>0</tilted></_>
    <_>
      <rects>
        <_>
          3 44 4 6 -1.</_>
        <_>
          3 44 2 3 2.</_>
        <_>
          5 47 2 3 2.</_></rects>
      <tilted>0</tilted></_>
    <_>
      <rects>
        <_>
          4 7 24 2 -1.</_>
        <_>
          4 8 24 1 2.</_></rects>
      <tilted>0</tilted></_>
    <_>
      <rects>
        <_>
          4 12 26 4 -1.</_>
        <_>
          4 12 13 2 2.</_>
        <_>
          17 14 13 2 2.</_></rects>
      <tilted>0</tilted></_>
    <_>
      <rects>
        <_>
          4 14 1 2 -1.</_>
        <_>
          4 15 1 1 2.</_></rects>
      <tilted>0</tilted></_>
    <_>
      <rects>
        <_>
          4 46 34 14 -1.</_>
        <_>
          4 53 34 7 2.</_></rects>
      <tilted>0</tilted></_>
    <_>
      <rects>
        <_>
          4 47 4 2 -1.</_>
        <_>
          4 47 2 1 2.</_>
        <_>
          6 48 2 1 2.</_></rects>
      <tilted>0</tilted></_>
    <_>
      <rects>
        <_>
          4 50 1 2 -1.</_>
        <_>
          4 51 1 1 2.</_></rects>
      <tilted>0</tilted></_>
    <_>
      <rects>
        <_>
          4 56 28 1 -1.</_>
        <_>
          18 56 14 1 2.</_></rects>
      <tilted>0</tilted></_>
    <_>
      <rects>
        <_>
          5 3 18 1 -1.</_>
        <_>
          14 3 9 1 2.</_></rects>
      <tilted>0</tilted></_>
    <_>
      <rects>
        <_>
          5 11 40 12 -1.</_>
        <_>
          5 11 20 6 2.</_>
        <_>
          25 17 20 6 2.</_></rects>
      <tilted>0</tilted></_>
    <_>
      <rects>
        <_>
          5 13 4 24 -1.</_>
        <_>
          5 13 2 12 2.</_>
        <_>
          7 25 2 12 2.</_></rects>
      <tilted>0</tilted></_>
    <_>
      <rects>
        <_>
          5 28 2 2 -1.</_>
        <_>
          5 28 1 1 2.</_>
        <_>
          6 29 1 1 2.</_></rects>
      <tilted>0</tilted></_>
    <_>
      <rects>
        <_>
          5 38 21 22 -1.</_>
        <_>
          5 49 21 11 2.</_></rects>
      <tilted>0</tilted></_>
    <_>
      <rects>
        <_>
          5 58 11 2 -1.</_>
        <_>
          5 59 11 1 2.</_></rects>
      <tilted>0</tilted></_>
    <_>
      <rects>
        <_>
          6 1 34 11 -1.</_>
        <_>
          23 1 17 11 2.</_></rects>
      <tilted>0</tilted></_>
    <_>
      <rects>
        <_>
          6 11 3 44 -1.</_>
        <_>
          6 33 3 22 2.</_></rects>
      <tilted>0</tilted></_>
    <_>
      <rects>
        <_>
          6 14 25 38 -1.</_>
        <_>
          6 33 25 19 2.</_></rects>
      <tilted>0</tilted></_>
    <_>
      <rects>
        <_>
          6 24 12 2 -1.</_>
        <_>
          6 24 6 1 2.</_>
        <_>
          12 25 6 1 2.</_></rects>
      <tilted>0</tilted></_>
    <_>
      <rects>
        <_>
          6 31 24 2 -1.</_>
        <_>
          6 32 24 1 2.</_></rects>
      <tilted>0</tilted></_>
    <_>
      <rects>
        <_>
          6 37 10 3 -1.</_>
        <_>
          11 37 5 3 2.</_></rects>
      <tilted>0</tilted></_>
    <_>
      <rects>
        <_>
          6 48 35 10 -1.</_>
        <_>
          6 53 35 5 2.</_></rects>
      <tilted>0</tilted></_>
    <_>
      <rects>
        <_>
          6 53 32 4 -1.</_>
        <_>
          6 55 32 2 2.</_></rects>
      <tilted>0</tilted></_>
    <_>
      <rects>
        <_>
          7 6 2 34 -1.</_>
        <_>
          7 6 1 17 2.</_>
        <_>
          8 23 1 17 2.</_></rects>
      <tilted>0</tilted></_>
    <_>
      <rects>
        <_>
          7 21 9 2 -1.</_>
        <_>
          10 21 3 2 2.</_></rects>
      <tilted>0</tilted></_>
    <_>
      <rects>
        <_>
          7 21 34 4 -1.</_>
        <_>
          7 21 17 2 2.</_>
        <_>
          24 23 17 2 2.</_></rects>
      <tilted>0</tilted></_>
    <_>
      <rects>
        <_>
          7 46 4 4 -1.</_>
        <_>
          7 46 2 2 2.</_>
        <_>
          9 48 2 2 2.</_></rects>
      <tilted>0</tilted></_>
    <_>
      <rects>
        <_>
          7 48 37 12 -1.</_>
        <_>
          7 54 37 6 2.</_></rects>
      <tilted>0</tilted></_>
    <_>
      <rects>
        <_>
          8 5 36 2 -1.</_>
        <_>
          20 5 12 2 2.</_></rects>
      <tilted>0</tilted></_>
    <_>
      <rects>
        <_>
          8 26 6 4 -1.</_>
        <_>
          8 28 6 2 2.</_></rects>
      <tilted>0</tilted></_>
    <_>
      <rects>
        <_>
          9 3 29 2 -1.</_>
        <_>
          9 4 29 1 2.</_></rects>
      <tilted>0</tilted></_>
    <_>
      <rects>
        <_>
          9 6 36 13 -1.</_>
        <_>
          27 6 18 13 2.</_></rects>
      <tilted>0</tilted></_>
    <_>
      <rects>
        <_>
          9 11 22 36 -1.</_>
        <_>
          9 29 22 18 2.</_></rects>
      <tilted>0</tilted></_>
    <_>
      <rects>
        <_>
          9 48 14 6 -1.</_>
        <_>
          9 48 7 3 2.</_>
        <_>
          16 51 7 3 2.</_></rects>
      <tilted>0</tilted></_>
    <_>
      <rects>
        <_>
          9 48 34 2 -1.</_>
        <_>
          9 48 17 1 2.</_>
        <_>
          26 49 17 1 2.</_></rects>
      <tilted>0</tilted></_>
    <_>
      <rects>
        <_>
          11 3 20 6 -1.</_>
        <_>
          11 6 20 3 2.</_></rects>
      <tilted>0</tilted></_>
    <_>
      <rects>
        <_>
          11 15 2 4 -1.</_>
        <_>
          11 15 1 2 2.</_>
        <_>
          12 17 1 2 2.</_></rects>
      <tilted>0</tilted></_>
    <_>
      <rects>
        <_>
          12 12 32 38 -1.</_>
        <_>
          12 31 32 19 2.</_></rects>
      <tilted>0</tilted></_>
    <_>
      <rects>
        <_>
          13 4 32 56 -1.</_>
        <_>
          13 4 16 28 2.</_>
        <_>
          29 32 16 28 2.</_></rects>
      <tilted>0</tilted></_>
    <_>
      <rects>
        <_>
          13 14 6 3 -1.</_>
        <_>
          15 14 2 3 2.</_></rects>
      <tilted>0</tilted></_>
    <_>
      <rects>
        <_>
          13 18 27 26 -1.</_>
        <_>
          22 18 9 26 2.</_></rects>
      <tilted>0</tilted></_>
    <_>
      <rects>
        <_>
          13 20 32 4 -1.</_>
        <_>
          13 20 16 2 2.</_>
        <_>
          29 22 16 2 2.</_></rects>
      <tilted>0</tilted></_>
    <_>
      <rects>
        <_>
          13 38 2 10 -1.</_>
        <_>
          14 38 1 10 2.</_></rects>
      <tilted>0</tilted></_>
    <_>
      <rects>
        <_>
          13 56 18 4 -1.</_>
        <_>
          13 58 18 2 2.</_></rects>
      <tilted>0</tilted></_>
    <_>
      <rects>
        <_>
          14 42 1 4 -1.</_>
        <_>
          14 44 1 2 2.</_></rects>
      <tilted>0</tilted></_>
    <_>
      <rects>
        <_>
          15 1 3 48 -1.</_>
        <_>
          15 25 3 24 2.</_></rects>
      <tilted>0</tilted></_>
    <_>
      <rects>
        <_>
          15 12 21 1 -1.</_>
        <_>
          22 12 7 1 2.</_></rects>
      <tilted>0</tilted></_>
    <_>
      <rects>
        <_>
          15 46 2 4 -1.</_>
        <_>
          15 46 1 2 2.</_>
        <_>
          16 48 1 2 2.</_></rects>
      <tilted>0</tilted></_>
    <_>
      <rects>
        <_>
          15 48 1 2 -1.</_>
        <_>
          15 49 1 1 2.</_></rects>
      <tilted>0</tilted></_>
    <_>
      <rects>
        <_>
          16 20 12 18 -1.</_>
        <_>
          16 26 12 6 2.</_></rects>
      <tilted>0</tilted></_>
    <_>
      <rects>
        <_>
          16 27 6 12 -1.</_>
        <_>
          16 27 3 6 2.</_>
        <_>
          19 33 3 6 2.</_></rects>
      <tilted>0</tilted></_>
    <_>
      <rects>
        <_>
          16 48 2 2 -1.</_>
        <_>
          16 49 2 1 2.</_></rects>
      <tilted>0</tilted></_>
    <_>
      <rects>
        <_>
          17 15 2 2 -1.</_>
        <_>
          17 15 1 1 2.</_>
        <_>
          18 16 1 1 2.</_></rects>
      <tilted>0</tilted></_>
    <_>
      <rects>
        <_>
          17 16 16 36 -1.</_>
        <_>
          17 34 16 18 2.</_></rects>
      <tilted>0</tilted></_>
    <_>
      <rects>
        <_>
          18 0 8 3 -1.</_>
        <_>
          22 0 4 3 2.</_></rects>
      <tilted>0</tilted></_>
    <_>
      <rects>
        <_>
          18 2 12 33 -1.</_>
        <_>
          18 13 12 11 2.</_></rects>
      <tilted>0</tilted></_>
    <_>
      <rects>
        <_>
          18 7 2 3 -1.</_>
        <_>
          19 7 1 3 2.</_></rects>
      <tilted>0</tilted></_>
    <_>
      <rects>
        <_>
          18 15 3 42 -1.</_>
        <_>
          18 29 3 14 2.</_></rects>
      <tilted>0</tilted></_>
    <_>
      <rects>
        <_>
          18 20 26 21 -1.</_>
        <_>
          18 27 26 7 2.</_></rects>
      <tilted>0</tilted></_>
    <_>
      <rects>
        <_>
          19 23 3 18 -1.</_>
        <_>
          19 32 3 9 2.</_></rects>
      <tilted>0</tilted></_>
    <_>
      <rects>
        <_>
          19 51 6 6 -1.</_>
        <_>
          19 54 6 3 2.</_></rects>
      <tilted>0</tilted></_>
    <_>
      <rects>
        <_>
          20 20 22 4 -1.</_>
        <_>
          20 20 11 2 2.</_>
        <_>
          31 22 11 2 2.</_></rects>
      <tilted>0</tilted></_>
    <_>
      <rects>
        <_>
          21 2 4 32 -1.</_>
        <_>
          21 18 4 16 2.</_></rects>
      <tilted>0</tilted></_>
    <_>
      <rects>
        <_>
          21 32 8 8 -1.</_>
        <_>
          25 32 4 8 2.</_></rects>
      <tilted>0</tilted></_>
    <_>
      <rects>
        <_>
          22 1 20 52 -1.</_>
        <_>
          22 27 20 26 2.</_></rects>
      <tilted>0</tilted></_>
    <_>
      <rects>
        <_>
          22 12 6 38 -1.</_>
        <_>
          22 31 6 19 2.</_></rects>
      <tilted>0</tilted></_>
    <_>
      <rects>
        <_>
          22 23 4 4 -1.</_>
        <_>
          22 23 2 2 2.</_>
        <_>
          24 25 2 2 2.</_></rects>
      <tilted>0</tilted></_>
    <_>
      <rects>
        <_>
          22 45 1 3 -1.</_>
        <_>
          22 46 1 1 2.</_></rects>
      <tilted>0</tilted></_>
    <_>
      <rects>
        <_>
          22 47 20 2 -1.</_>
        <_>
          22 48 20 1 2.</_></rects>
      <tilted>0</tilted></_>
    <_>
      <rects>
        <_>
          23 10 9 46 -1.</_>
        <_>
          23 33 9 23 2.</_></rects>
      <tilted>0</tilted></_>
    <_>
      <rects>
        <_>
          23 16 12 42 -1.</_>
        <_>
          23 37 12 21 2.</_></rects>
      <tilted>0</tilted></_>
    <_>
      <rects>
        <_>
          23 25 22 5 -1.</_>
        <_>
          34 25 11 5 2.</_></rects>
      <tilted>0</tilted></_>
    <_>
      <rects>
        <_>
          23 30 6 16 -1.</_>
        <_>
          26 30 3 16 2.</_></rects>
      <tilted>0</tilted></_>
    <_>
      <rects>
        <_>
          23 33 2 21 -1.</_>
        <_>
          23 40 2 7 2.</_></rects>
      <tilted>0</tilted></_>
    <_>
      <rects>
        <_>
          23 46 16 12 -1.</_>
        <_>
          23 46 8 6 2.</_>
        <_>
          31 52 8 6 2.</_></rects>
      <tilted>0</tilted></_>
    <_>
      <rects>
        <_>
          24 7 8 26 -1.</_>
        <_>
          24 7 4 13 2.</_>
        <_>
          28 20 4 13 2.</_></rects>
      <tilted>0</tilted></_>
    <_>
      <rects>
        <_>
          24 34 2 20 -1.</_>
        <_>
          24 44 2 10 2.</_></rects>
      <tilted>0</tilted></_>
    <_>
      <rects>
        <_>
          24 36 1 2 -1.</_>
        <_>
          24 37 1 1 2.</_></rects>
      <tilted>0</tilted></_>
    <_>
      <rects>
        <_>
          24 36 10 3 -1.</_>
        <_>
          29 36 5 3 2.</_></rects>
      <tilted>0</tilted></_>
    <_>
      <rects>
        <_>
          25 10 1 4 -1.</_>
        <_>
          25 12 1 2 2.</_></rects>
      <tilted>0</tilted></_>
    <_>
      <rects>
        <_>
          25 17 20 13 -1.</_>
        <_>
          35 17 10 13 2.</_></rects>
      <tilted>0</tilted></_>
    <_>
      <rects>
        <_>
          25 23 4 26 -1.</_>
        <_>
          25 23 2 13 2.</_>
        <_>
          27 36 2 13 2.</_></rects>
      <tilted>0</tilted></_>
    <_>
      <rects>
        <_>
          25 50 20 2 -1.</_>
        <_>
          25 51 20 1 2.</_></rects>
      <tilted>0</tilted></_>
    <_>
      <rects>
        <_>
          25 54 2 2 -1.</_>
        <_>
          25 54 1 1 2.</_>
        <_>
          26 55 1 1 2.</_></rects>
      <tilted>0</tilted></_>
    <_>
      <rects>
        <_>
          26 0 6 18 -1.</_>
        <_>
          26 0 3 9 2.</_>
        <_>
          29 9 3 9 2.</_></rects>
      <tilted>0</tilted></_>
    <_>
      <rects>
        <_>
          26 49 16 2 -1.</_>
        <_>
          26 50 16 1 2.</_></rects>
      <tilted>0</tilted></_>
    <_>
      <rects>
        <_>
          27 26 12 20 -1.</_>
        <_>
          27 26 6 10 2.</_>
        <_>
          33 36 6 10 2.</_></rects>
      <tilted>0</tilted></_>
    <_>
      <rects>
        <_>
          27 26 10 4 -1.</_>
        <_>
          27 28 10 2 2.</_></rects>
      <tilted>0</tilted></_>
    <_>
      <rects>
        <_>
          27 52 8 4 -1.</_>
        <_>
          27 52 4 2 2.</_>
        <_>
          31 54 4 2 2.</_></rects>
      <tilted>0</tilted></_>
    <_>
      <rects>
        <_>
          28 17 15 4 -1.</_>
        <_>
          28 19 15 2 2.</_></rects>
      <tilted>0</tilted></_>
    <_>
      <rects>
        <_>
          28 48 3 2 -1.</_>
        <_>
          28 49 3 1 2.</_></rects>
      <tilted>0</tilted></_>
    <_>
      <rects>
        <_>
          29 14 2 8 -1.</_>
        <_>
          30 14 1 8 2.</_></rects>
      <tilted>0</tilted></_>
    <_>
      <rects>
        <_>
          29 58 12 1 -1.</_>
        <_>
          33 58 4 1 2.</_></rects>
      <tilted>0</tilted></_>
    <_>
      <rects>
        <_>
          30 0 5 34 -1.</_>
        <_>
          30 17 5 17 2.</_></rects>
      <tilted>0</tilted></_>
    <_>
      <rects>
        <_>
          30 16 8 10 -1.</_>
        <_>
          30 16 4 5 2.</_>
        <_>
          34 21 4 5 2.</_></rects>
      <tilted>0</tilted></_>
    <_>
      <rects>
        <_>
          30 42 6 2 -1.</_>
        <_>
          30 43 6 1 2.</_></rects>
      <tilted>0</tilted></_>
    <_>
      <rects>
        <_>
          31 3 7 22 -1.</_>
        <_>
          31 14 7 11 2.</_></rects>
      <tilted>0</tilted></_>
    <_>
      <rects>
        <_>
          31 47 2 12 -1.</_>
        <_>
          31 47 1 6 2.</_>
        <_>
          32 53 1 6 2.</_></rects>
      <tilted>0</tilted></_>
    <_>
      <rects>
        <_>
          34 49 1 2 -1.</_>
        <_>
          34 50 1 1 2.</_></rects>
      <tilted>0</tilted></_>
    <_>
      <rects>
        <_>
          35 55 2 2 -1.</_>
        <_>
          35 56 2 1 2.</_></rects>
      <tilted>0</tilted></_>
    <_>
      <rects>
        <_>
          35 55 8 2 -1.</_>
        <_>
          39 55 4 2 2.</_></rects>
      <tilted>0</tilted></_>
    <_>
      <rects>
        <_>
          36 19 2 1 -1.</_>
        <_>
          37 19 1 1 2.</_></rects>
      <tilted>0</tilted></_>
    <_>
      <rects>
        <_>
          37 18 2 4 -1.</_>
        <_>
          37 18 1 2 2.</_>
        <_>
          38 20 1 2 2.</_></rects>
      <tilted>0</tilted></_>
    <_>
      <rects>
        <_>
          37 32 6 4 -1.</_>
        <_>
          40 32 3 4 2.</_></rects>
      <tilted>0</tilted></_>
    <_>
      <rects>
        <_>
          38 0 4 28 -1.</_>
        <_>
          38 0 2 14 2.</_>
        <_>
          40 14 2 14 2.</_></rects>
      <tilted>0</tilted></_>
    <_>
      <rects>
        <_>
          38 55 2 2 -1.</_>
        <_>
          38 55 1 1 2.</_>
        <_>
          39 56 1 1 2.</_></rects>
      <tilted>0</tilted></_>
    <_>
      <rects>
        <_>
          38 56 2 2 -1.</_>
        <_>
          38 56 1 1 2.</_>
        <_>
          39 57 1 1 2.</_></rects>
      <tilted>0</tilted></_>
    <_>
      <rects>
        <_>
          38 59 6 1 -1.</_>
        <_>
          41 59 3 1 2.</_></rects>
      <tilted>0</tilted></_>
    <_>
      <rects>
        <_>
          39 2 6 28 -1.</_>
        <_>
          39 2 3 14 2.</_>
        <_>
          42 16 3 14 2.</_></rects>
      <tilted>0</tilted></_>
    <_>
      <rects>
        <_>
          39 10 2 2 -1.</_>
        <_>
          39 10 1 1 2.</_>
        <_>
          40 11 1 1 2.</_></rects>
      <tilted>0</tilted></_>
    <_>
      <rects>
        <_>
          39 32 2 2 -1.</_>
        <_>
          40 32 1 2 2.</_></rects>
      <tilted>0</tilted></_>
    <_>
      <rects>
        <_>
          39 37 6 10 -1.</_>
        <_>
          39 37 3 5 2.</_>
        <_>
          42 42 3 5 2.</_></rects>
      <tilted>0</tilted></_>
    <_>
      <rects>
        <_>
          39 45 5 2 -1.</_>
        <_>
          39 46 5 1 2.</_></rects>
      <tilted>0</tilted></_>
    <_>
      <rects>
        <_>
          39 53 2 4 -1.</_>
        <_>
          40 53 1 4 2.</_></rects>
      <tilted>0</tilted></_>
    <_>
      <rects>
        <_>
          40 19 5 12 -1.</_>
        <_>
          40 23 5 4 2.</_></rects>
      <tilted>0</tilted></_>
    <_>
      <rects>
        <_>
          40 26 5 4 -1.</_>
        <_>
          40 28 5 2 2.</_></rects>
      <tilted>0</tilted></_>
    <_>
      <rects>
        <_>
          40 27 4 28 -1.</_>
        <_>
          42 27 2 28 2.</_></rects>
      <tilted>0</tilted></_>
    <_>
      <rects>
        <_>
          41 14 4 4 -1.</_>
        <_>
          41 14 2 2 2.</_>
        <_>
          43 16 2 2 2.</_></rects>
      <tilted>0</tilted></_>
    <_>
      <rects>
        <_>
          41 56 2 2 -1.</_>
        <_>
          41 56 1 1 2.</_>
        <_>
          42 57 1 1 2.</_></rects>
      <tilted>0</tilted></_>
    <_>
      <rects>
        <_>
          42 0 1 54 -1.</_>
        <_>
          42 18 1 18 2.</_></rects>
      <tilted>0</tilted></_>
    <_>
      <rects>
        <_>
          42 56 3 4 -1.</_>
        <_>
          43 56 1 4 2.</_></rects>
      <tilted>0</tilted></_>
    <_>
      <rects>
        <_>
          43 20 2 8 -1.</_>
        <_>
          44 20 1 8 2.</_></rects>
      <tilted>0</tilted></_>
    <_>
      <rects>
        <_>
          43 48 2 12 -1.</_>
        <_>
          44 48 1 12 2.</_></rects>
      <tilted>0</tilted></_>
    <_>
      <rects>
        <_>
          44 17 1 15 -1.</_>
        <_>
          44 22 1 5 2.</_></rects>
      <tilted>0</tilted></_></features></cascade>
</opencv_storage>
